[
  {
    "v" : {
      "c" : {
        "x" : 0.60508090257644653,
        "y" : -0.52110576629638672
      },
      "s" : {
        "x" : 1.179814338684082,
        "y" : 1.6250807046890259
      },
      "v" : {
        "max" : 1.7298579216003418,
        "min" : 0.0082265567034482956
      }
    },
    "w" : [
      {
        "a" : 0.49069344997406006,
        "b" : 0.4474034309387207,
        "c" : -0.22905707359313965,
        "d" : 0.56275677680969238,
        "tx" : 0.48850572109222412,
        "ty" : -0.33506965637207031
      },
      {
        "a" : -0.56017172336578369,
        "b" : -0.10900783538818359,
        "c" : 0.14946389198303223,
        "d" : -0.99007856845855713,
        "tx" : 0.73600161075592041,
        "ty" : -0.99987137317657471
      }
    ]
  },
  {
    "v" : {
      "c" : {
        "x" : 0.1463826596736908,
        "y" : 0.12733671069145203
      },
      "s" : {
        "x" : 1.9531981945037842,
        "y" : 2.0866801738739014
      },
      "v" : {
        "max" : 2.1341590881347656,
        "min" : 0.00558117451146245
      }
    },
    "w" : [
      {
        "a" : 0.71614217758178711,
        "b" : -0.29653418064117432,
        "c" : -0.29993522167205811,
        "d" : -0.78149139881134033,
        "tx" : 0.38128268718719482,
        "ty" : 0.66345655918121338
      },
      {
        "a" : -0.13598358631134033,
        "b" : -0.26730632781982422,
        "c" : 0.71859598159790039,
        "d" : -0.59666311740875244,
        "tx" : -0.089249253273010254,
        "ty" : 0.064785242080688477
      }
    ]
  },
  {
    "v" : {
      "c" : {
        "x" : -0.1941547691822052,
        "y" : 0.29080867767333984
      },
      "s" : {
        "x" : 1.6195402145385742,
        "y" : 0.9458625316619873
      },
      "v" : {
        "max" : 1.5840402841567993,
        "min" : 0.015854652971029282
      }
    },
    "w" : [
      {
        "a" : 0.35697042942047119,
        "b" : 0.43882977962493896,
        "c" : -0.64934039115905762,
        "d" : 0.45818054676055908,
        "tx" : -0.31993341445922852,
        "ty" : 0.33331763744354248
      },
      {
        "a" : -0.43980932235717773,
        "b" : 0.23778343200683594,
        "c" : -0.79030966758728027,
        "d" : -0.69900107383728027,
        "tx" : 0.26505005359649658,
        "ty" : 0.4665529727935791
      }
    ]
  },
  {
    "v" : {
      "c" : {
        "x" : -0.14939521253108978,
        "y" : 0.089935779571533203
      },
      "s" : {
        "x" : 1.7452932596206665,
        "y" : 1.8632029294967651
      },
      "v" : {
        "max" : 2.047853946685791,
        "min" : 0.021543795242905617
      }
    },
    "w" : [
      {
        "a" : -0.36309444904327393,
        "b" : 0.87420225143432617,
        "c" : 0.29011344909667969,
        "d" : 0.22582101821899414,
        "tx" : 0.13160550594329834,
        "ty" : 0.41705656051635742
      },
      {
        "a" : -0.88280773162841797,
        "b" : 0.58603596687316895,
        "c" : -0.41231787204742432,
        "d" : -0.69374191761016846,
        "tx" : -0.39328789710998535,
        "ty" : 0.36665761470794678
      }
    ]
  },
  {
    "@": "pretty good spiral",
    "v" : {
      "c" : {
        "x" : -0.57471758127212524,
        "y" : 0.46336802840232849
      },
      "s" : {
        "x" : 2.802433967590332,
        "y" : 5.4320387840270996
      },
      "v" : {
        "max" : 5.645209789276123,
        "min" : 0.0012158106546849012
      }
    },
    "w" : [
      {
        "a" : 0.86661994457244873,
        "b" : -0.35431322455406189,
        "c" : 0.29783919453620911,
        "d" : 0.75421720743179321,
        "tx" : -0.64195704460144043,
        "ty" : 0.45430773496627808
      },
      {
        "a" : -0.37004730105400085,
        "b" : 0.34375041723251343,
        "c" : -0.012995501048862934,
        "d" : -0.42807209491729736,
        "tx" : 0.12725876271724701,
        "ty" : -0.46729916334152222
      }
    ]
  },
  {
    "@": "heart",
    "v" : {
      "c" : {
        "x" : 0.97349256277084351,
        "y" : 0.41184738278388977
      },
      "s" : {
        "x" : 2.1046884059906006,
        "y" : 1.6552526950836182
      },
      "v" : {
        "max" : 2.0230350494384766,
        "min" : 0.042853020131587982
      }
    },
    "w" : [
      {
        "a" : 0.72150886058807373,
        "b" : 0.53262370824813843,
        "c" : -0.73804336786270142,
        "d" : 0.5333063006401062,
        "tx" : 0.75201654434204102,
        "ty" : -0.38717389106750488
      },
      {
        "a" : 0.12550143897533417,
        "b" : 0.57658195495605469,
        "c" : 0.46000882983207703,
        "d" : -0.5652841329574585,
        "tx" : 0.036883138120174408,
        "ty" : 0.21819686889648438
      }
    ]
  },
  {
    "@": "tree",
    "v" : {
      "c" : {
        "x" : 0.28047904372215271,
        "y" : 0.30014556646347046
      },
      "s" : {
        "x" : 3.6244964599609375,
        "y" : 4.4845213890075684
      },
      "v" : {
        "max" : 3.6563358306884766,
        "min" : 0.089936062693595886
      }
    },
    "w" : [
      {
        "a" : -0.5835418701171875,
        "b" : -0.023239465430378914,
        "c" : -0.054412897676229477,
        "d" : 0.79381519556045532,
        "tx" : -0.2963809072971344,
        "ty" : 0.58389312028884888
      },
      {
        "a" : -0.85398954153060913,
        "b" : 0.07398715615272522,
        "c" : 0.42584013938903809,
        "d" : 0.68707621097564697,
        "tx" : 0.3477884829044342,
        "ty" : -0.61872518062591553
      }
    ]
  },
  {
    "@": "freezed ice",
    "v" : {
      "c" : {
        "x" : -0.26995691657066345,
        "y" : -0.048725057393312454
      },
      "s" : {
        "x" : 0.67797380685806274,
        "y" : 0.74851530790328979
      },
      "v" : {
        "max" : 0.80622494220733643,
        "min" : 0.0098867109045386314
      }
    },
    "w" : [
      {
        "a" : -0.15175367891788483,
        "b" : 0.76445168256759644,
        "c" : 0.48290777206420898,
        "d" : 0.15766730904579163,
        "tx" : -0.45967605710029602,
        "ty" : 0.080567643046379089
      },
      {
        "a" : -0.87550491094589233,
        "b" : 0.77397304773330688,
        "c" : -0.20586247742176056,
        "d" : -0.42975249886512756,
        "tx" : -0.52332001924514771,
        "ty" : 0.20442904531955719
      }
    ]
  },
  {
    "@": "snow crystal",
    "v" : {
      "c" : {
        "x" : -0.25731343030929565,
        "y" : 0.32759460806846619
      },
      "s" : {
        "x" : 1.9271280765533447,
        "y" : 1.9315756559371948
      },
      "v" : {
        "max" : 1.9428472518920898,
        "min" : 0.000333496427629143
      }
    },
    "w" : [
      {
        "a" : 0.91749662160873413,
        "b" : -0.65146207809448242,
        "c" : 0.81453466415405273,
        "d" : 0.20162798464298248,
        "tx" : -0.38687005639076233,
        "ty" : 0.34202307462692261
      },
      {
        "a" : -0.26804697513580322,
        "b" : 0.22004835307598114,
        "c" : -0.61944633722305298,
        "d" : -0.23101484775543213,
        "tx" : 0.2739180326461792,
        "ty" : -0.16275015473365784
      }
    ]
  },
  {
    "@": "uzu",
    "v" : {
      "c" : {
        "x" : -0.25877302885055542,
        "y" : 0.64076036214828491
      },
      "s" : {
        "x" : 1.3186814785003662,
        "y" : 1.1186250448226929
      },
      "v" : {
        "max" : 1.2662326097488403,
        "min" : 0.011518046259880066
      }
    },
    "w" : [
      {
        "a" : -0.32279759645462036,
        "b" : -0.53453749418258667,
        "c" : -0.37185260653495789,
        "d" : 0.5383419394493103,
        "tx" : 0.088861137628555298,
        "ty" : 0.40639448165893555
      },
      {
        "a" : 0.81041824817657471,
        "b" : -0.41624769568443298,
        "c" : 0.74117755889892578,
        "d" : 0.53821372985839844,
        "tx" : -0.53320431709289551,
        "ty" : 0.031497538089752197
      }
    ]
  },
  {
    "@": "slime",
    "v" : {
      "c" : {
        "x" : 0.35169726610183716,
        "y" : -0.063916794955730438
      },
      "s" : {
        "x" : 2.4424285888671875,
        "y" : 2.2665848731994629
      },
      "v" : {
        "max" : 3.2956912517547607,
        "min" : 0.016084212809801102
      }
    },
    "w" : [
      {
        "a" : 0.26489749550819397,
        "b" : -0.68661332130432129,
        "c" : -1.0236711502075195,
        "d" : -0.024090450257062912,
        "tx" : 0.60477244853973389,
        "ty" : 0.44446063041687012
      },
      {
        "a" : -0.16034144163131714,
        "b" : -0.57554483413696289,
        "c" : -0.39486998319625854,
        "d" : 0.058217082172632217,
        "tx" : -0.20289836823940277,
        "ty" : -0.32794514298439026
      }
    ]
  },
  {
    "@": "tree fractal",
    "v" : {
      "c" : {
        "x" : -0.23262390494346619,
        "y" : 0.046507898718118668
      },
      "s" : {
        "x" : 0.87610173225402832,
        "y" : 1.0513781309127808
      },
      "v" : {
        "max" : 0.97686618566513062,
        "min" : 0.012460092082619667
      }
    },
    "w" : [
      {
        "a" : -0.60867148637771606,
        "b" : 0.58140182495117188,
        "c" : -0.39120751619338989,
        "d" : -0.2255062460899353,
        "tx" : -0.24452632665634155,
        "ty" : 0.42463812232017517
      },
      {
        "a" : 0.7099461555480957,
        "b" : 0.43067231774330139,
        "c" : -0.60410988330841064,
        "d" : 0.40116330981254578,
        "tx" : -0.064811185002326965,
        "ty" : -0.10499782860279083
      }
    ]
  },
  {
    "@": "ladder",
    "v" : {
      "c" : {
        "x" : 0.067551359534263611,
        "y" : 0.72158312797546387
      },
      "s" : {
        "x" : 1.7603803873062134,
        "y" : 2.6289069652557373
      },
      "v" : {
        "max" : 3.0171849727630615,
        "min" : 0.011676006950438023
      }
    },
    "w" : [
      {
        "a" : -0.71048283576965332,
        "b" : -0.17170536518096924,
        "c" : 0.23565897345542908,
        "d" : -0.33967703580856323,
        "tx" : -0.38076549768447876,
        "ty" : 0.25729843974113464
      },
      {
        "a" : -0.42931583523750305,
        "b" : 0.94531357288360596,
        "c" : 0.56358128786087036,
        "d" : 0.41816645860671997,
        "tx" : 0.14730927348136902,
        "ty" : 0.45431241393089294
      }
    ]
  },
  {
    "@": "tai-chi",
    "v" : {
      "c" : {
        "x" : 0.10267069935798645,
        "y" : -0.086576610803604126
      },
      "s" : {
        "x" : 1.4030524492263794,
        "y" : 1.2503314018249512
      },
      "v" : {
        "max" : 1.4251139163970947,
        "min" : 0.00064176431624218822
      }
    },
    "w" : [
      {
        "a" : 0.46309944987297058,
        "b" : -0.03559793159365654,
        "c" : 0.03559793159365654,
        "d" : 0.46309944987297058,
        "tx" : 0.38743889331817627,
        "ty" : 0.16383761167526245
      },
      {
        "a" : -0.94653183221817017,
        "b" : 0.2820926308631897,
        "c" : -0.2820926308631897,
        "d" : -0.94653183221817017,
        "tx" : 0.17210672795772552,
        "ty" : -0.20258024334907532
      }
    ]
  }
]
